{
  "config" : {
    "algorithm" : "FRankNet",
    "numIterations" : 100,
    "batchSize" : 0,
    "params" : {
      "learningRate" : 0.001,
      "optimizer" : "momentum",
      "weightInit" : "normal",
      "regularization" : {
        "regularizer" : "L2",
        "rate" : 0.01
      },
      "layers" : [ {
        "activator" : "Sigmoid",
        "num" : 5
      } ]
    },
    "dataSet" : {
      "training" : "data/MQ2008/Fold1/train.txt",
      "validation" : "data/MQ2008/Fold1/vali.txt",
      "test" : "data/MQ2008/Fold1/test.txt"
    },
    "model" : {
      "format" : "json",
      "file" : "model/franknet-model.json"
    },
    "evaluation" : {
      "evaluator" : "NDCG",
      "params" : {
        "k" : 10
      }
    },
    "report" : {
      "format" : "csv",
      "file" : "report/franknet-report.csv"
    }
  },
  "weights" : [ [ [ 65.49851665035762, 30.63694336976621, 6.7446361630253335, -3.351566550553486, 3.757354375316103, 28.513972854715803, -0.26986468164046007, -2.0056994124255243, -0.6172352667808356, -0.043161691300306504, 1.4084748685050434, 15.292738286249916, 5.936339134712766, -2.243926783673626, 5.013430632266347, 14.03770179114526, 33.05513905210285, 17.43107540624184, 24.82983130344315, 11.886799377693132, 33.176372703454476, 33.33235203094352, 32.78700967804286, 42.9609614546719, 35.35825882787819, 4.361578163348861, 3.5098379719029085, 4.599463154834145, 3.85472004625112, -3.543516748095087, -2.5267507909387477, -0.5422777685871495, -2.4749213980981937, 4.549611028255907, 4.795196221891452, 6.578634083194513, 1.620716099301436, 32.57005719252751, 32.46496858369146, 43.03228080860314, 33.827833782111796, 31.571999151539835, 11.210813462652698, 0.36293857622493236, 4.964796207205503, 5.934806916607523, 8.28330959277649 ], [ 52.01058006829889, 6.90784169192113, 0.6747547545415093, -2.303017815463181, 1.1738465332035257, 8.046958411747164, 1.3383819091182145, -0.1672188893543127, 0.5852921770682605, -1.6607180479292138, 0.5053930373579677, 13.075951497439174, 1.099173114049158, -3.478454286473249, -1.5638097225299572, 13.770089539523662, 11.507766479306017, 7.644033291361855, 13.520354396335081, 13.955220466386066, 9.46235577202805, 3.1483474990328815, 3.6109881181158596, 3.8922251028705244, 5.317334976159016, 1.552394588242593, -1.0457668214029325, 0.32884770115441836, -1.5251095947929543, -1.3740963811407085, -2.8295404151770045, -4.521064623826606, -3.106641211447988, -2.299892162473028, -2.5226232604945986, -5.28398400040366, -4.742187128186116, 5.413401865280924, 3.5914552883497417, 3.1368205337220196, 5.567619746797801, 20.625291085923013, 12.813073953866635, -0.2887078067833971, 2.891307578182754, 3.7640677453706743, 7.428190124967821 ], [ 90.11213654347645, 34.00904393511939, 22.836707975739696, 27.968458862017307, 12.307237388902799, 34.61669541790871, -1.3400377227039988, -0.04005930241502073, 0.6916941140589028, 0.2205207214883022, 0.9588831611660061, 36.564504198120176, 21.64941835563442, 26.345449376378788, 12.242749533670448, 36.45783898224135, 30.432767680832104, 19.241886942133412, 26.09568046420788, 14.31537142357773, 31.653004255579553, 69.2846777923194, 66.38658413713746, 77.3124447153188, 66.51231717510277, 28.688034772175296, 31.983565776417308, 28.15213320741465, 30.508690788658114, 23.174896527053328, 25.439901588118577, 29.08404015217538, 25.71831168166983, 12.911510421971618, 11.759785436093361, 14.210014206506951, 13.203120247247641, 69.52487776690467, 68.34508579206539, 77.50127164153568, 70.8003139674006, 32.76872379149567, 16.8693756520882, 1.4136291922155753, 7.342746671190429, 7.413633013714078, 11.097020085500402 ], [ -74.79116866853522, 0.08061758714871842, -3.821779330870996, -3.2161699293371244, -8.170977050983499, -1.102795016345459, 0.8663913430630769, -0.3325086783511289, -1.0829461450006392, -1.4760094552737064, -0.7193501993193494, -16.087156217311918, -3.3656618325260683, -3.17056600154114, -3.876524968541843, -15.362128393943003, -0.8860715304367198, -10.143852850072859, -18.03547243019156, -22.23273915409068, -1.0257996768432842, -16.807787135531093, -18.505543170905888, -11.406237079895218, -16.137899938901594, -3.5885844135180465, -4.915057082247281, -1.2831801988159437, -2.969029601535679, -7.280892551473125, -2.5815873984109956, -1.919849864325297, -1.2571982716371872, -5.251923006568379, -3.53023129472564, -3.3415617810452094, -2.2921872211403196, -14.93218411048919, -16.465793502304024, -9.424704033577973, -17.871511186300115, -30.66848730397952, -24.64744161759858, 0.4902612536995693, -4.036183393043125, -6.523382684722097, -8.599032228421299 ], [ -55.511037947542704, -46.77815541632454, -9.766390674148338, 9.276335375058077, 9.386638518119458, -47.12138033609534, -1.0600472745076575, -0.9059579023815839, -0.53018416603032, 0.32918818366249597, -1.5557914398597306, -17.373827009266908, -7.188989786601775, 10.852618082600413, 8.441976737361685, -20.008280927738642, -48.48764774075882, -18.144540116600858, 10.056608861903117, 9.430317446549255, -49.311187654125625, -33.80578023426826, -32.203208820565585, -58.54156726930967, -37.76840548160935, -1.2886915461136053, 1.0098810300512113, -5.237688910008102, -2.853741831856227, 16.79785313658843, 11.6575692414186, 7.33554486639026, 6.932145302017606, 3.8854264043942743, 4.298272577486638, -0.4487758491127385, 1.7514821387564257, -33.59199873140387, -35.461239400819025, -56.713782332219964, -38.39190319481994, -10.060579254461334, 3.268960054868048, 0.19791700295304973, -7.222820727102024, -7.754247854666673, 5.7470025327220435 ] ], [ [ 0.009990004948299712, 5.605358226801693, 43.34320640058383, -15.628750831138838, 65.52363327580116, -50.94222163466931 ] ] ]
}