{
  "config" : {
    "algorithm" : "RankNet",
    "numIterations" : 100,
    "batchSize" : 10,
    "verbose" : true,
    "nomodel" : false,
    "params" : {
      "learningRate" : 1.0E-5,
      "optimizer" : "adam",
      "weightInit" : "xavier",
      "regularization" : {
        "regularizer" : "L2",
        "rate" : 0.01
      },
      "layers" : [ {
        "activator" : "Sigmoid",
        "num" : 10
      } ]
    },
    "dataSet" : {
      "training" : "./training_data.json",
      "validation" : "./training_data.json",
      "test" : "data/MQ2008/Fold1/test.txt"
    },
    "model" : {
      "format" : "json",
      "file" : "model/ranknet-model.json"
    },
    "evaluation" : {
      "evaluator" : "map",
      "params" : {
        "k" : 10
      }
    },
    "report" : {
      "format" : "csv",
      "file" : "report/ranknet-report.csv"
    }
  },
  "weights" : [ [ [ 0.009999900000494999, -0.0030657945711940406, 0.0023843777549969226, 0.006077724626351014, 3.540589726375618E-4, -0.001304443760731205, 0.004246496757265584 ], [ 0.009999900000494999, -0.011248662855158308, 0.013396851130039496, -0.007980574191083766, -0.004702344066425297, -0.006857476854696937, 0.0024811325926692176 ], [ 0.009999900000494999, 0.021924306532464372, 0.010423214499667249, -0.0018276175951801072, 0.01871632956171042, -0.03385919329602083, 4.5856752610195394E-4 ], [ 0.009999900000494999, 0.004979303772022087, 0.014310437637367905, -0.013583159083355197, 0.007501138198430234, -0.007723246832131206, 0.00500303803456198 ], [ 0.009999900000494999, 0.022880857752020818, 0.004734457526933306, -0.010101189331603685, -0.011964527090764029, 6.189926668354235E-4, -0.012714641553964652 ], [ 0.009999900000494999, 0.015589619703683628, 0.020525559643437146, -0.017433685891417496, -0.004352757008393306, 0.0217752588499968, 6.475133774054594E-4 ], [ 0.009999900000494999, -0.0011187413890659684, -0.001528050467073013, 0.020261196322421352, -0.015365405661756537, -0.0029243832273333947, 0.007079683734278142 ], [ 0.009999900000494999, -0.002348633998212821, 0.0018246419890859157, 0.027150426767959677, 0.009453416421352038, 0.017023859733677663, 0.0173561257024478 ], [ 0.009999900000494999, 0.018221058162810697, -0.002228712500456846, 0.004782495762214635, 0.01680583468291772, 0.0026562189544682376, -0.019528596290727132 ], [ 0.009999900000494999, 0.004058177072799852, 0.020281789684997477, -0.03448779879436333, 0.020411813955369288, -0.0011260134989687864, -0.00590470999650398 ] ], [ [ 0.009999900000494999, 0.004769679411597062, -0.010905603166778369, -0.008098747189738758, -1.666534817537509E-4, 0.011894856902826887, -0.01358355545945173, 0.007142319750548236, -0.025231584795887635, -0.007295486928262327, -0.009026010572319323 ] ] ]
}